Language model created by QuickLM on Fri May 13 01:02:03 EDT 2011
Copyright (c) 1996-2010 Carnegie Mellon University and Alexander I. Rudnicky

The model is in standard ARPA format, designed by Doug Paul while he was at MITRE.

The code that was used to produce this language model is available in Open Source.
Please visit http://www.speech.cs.cmu.edu/tools/ for more information

The (fixed) discount mass is 0.5. The backoffs are computed using the ratio method.
This model based on a corpus of 8 sentences and 42 words

\data\
ngram 1=42
ngram 2=60
ngram 3=57

\1-grams:
-1.2613 </s> -0.3010
-1.2613 <s> -0.2670
-1.8633 ABOUT, -0.2797
-2.1644 AIRLOCK. -0.2766
-2.1644 ALRIGHT, -0.2890
-2.1644 ANYMORE. -0.2950
-2.1644 ARE -0.2890
-2.1644 ARGUE -0.2980
-2.1644 BAY -0.2980
-2.1644 DO -0.2890
-2.1644 DON'T -0.2980
-2.1644 DOORS, -0.2890
-2.1644 DOORS. -0.2766
-2.1644 EMERGENCY -0.2980
-2.1644 GET -0.2980
-2.1644 GO -0.2980
-2.1644 HAL, -0.2950
-1.5623 HAL. -0.2702
-1.6872 HAL? -0.2766
-2.1644 HELL'D -0.2890
-2.1644 HELLO, -0.2890
-1.8633 I -0.2950
-2.1644 I'LL -0.2980
-2.1644 IDEA, -0.2920
-2.1644 IN -0.2980
-2.1644 KNOW -0.2950
-2.1644 ME, -0.2920
-1.8633 OPEN -0.2859
-2.1644 POD -0.2980
-2.1644 PROBLEM? -0.2766
-2.1644 READ -0.2980
-1.8633 TALKING -0.2950
-2.1644 THAT -0.2980
-1.4654 THE -0.2859
-2.1644 THROUGH -0.2859
-1.8633 WHAT -0.2950
-2.1644 WHAT'S -0.2859
-2.1644 WHERE -0.2859
-2.1644 WITH -0.2890
-2.1644 WON'T -0.2980
-1.5623 YOU -0.2859
-2.1644 YOU'RE -0.2950

\2-grams:
-1.2041 <s> ALRIGHT, 0.0000
-1.2041 <s> HAL, 0.0000
-1.2041 <s> HELLO, 0.0000
-1.2041 <s> I -0.1761
-1.2041 <s> OPEN 0.0000
-1.2041 <s> WHAT -0.1761
-1.2041 <s> WHAT'S 0.0000
-1.2041 <s> WHERE 0.0000
-0.6021 ABOUT, HAL. -0.1761
-0.6021 ABOUT, HAL? 0.0000
-0.3010 AIRLOCK. </s> -0.3010
-0.3010 ALRIGHT, HAL. -0.2430
-0.3010 ANYMORE. OPEN 0.0000
-0.3010 ARE YOU -0.2430
-0.3010 ARGUE WITH 0.0000
-0.3010 BAY DOORS, 0.0000
-0.3010 DO YOU -0.2430
-0.3010 DON'T KNOW 0.0000
-0.3010 DOORS, HAL. -0.1761
-0.3010 DOORS. </s> -0.3010
-0.3010 EMERGENCY AIRLOCK. 0.0000
-0.3010 GET THAT 0.0000
-0.3010 GO IN 0.0000
-0.3010 HAL, I -0.1761
-0.6021 HAL. </s> -0.3010
-0.9031 HAL. DO 0.0000
-0.9031 HAL. I'LL 0.0000
-0.3010 HAL? </s> -0.3010
-0.3010 HELL'D YOU -0.2430
-0.3010 HELLO, HAL. -0.2430
-0.6021 I DON'T 0.0000
-0.6021 I WON'T 0.0000
-0.3010 I'LL GO 0.0000
-0.3010 IDEA, HAL? 0.0000
-0.3010 IN THROUGH 0.0000
-0.3010 KNOW WHAT -0.1761
-0.3010 ME, HAL? 0.0000
-0.3010 OPEN THE -0.2041
-0.3010 POD BAY 0.0000
-0.3010 PROBLEM? </s> -0.3010
-0.3010 READ ME, 0.0000
-0.3010 TALKING ABOUT, 0.0000
-0.3010 THAT IDEA, 0.0000
-1.0000 THE DOORS. 0.0000
-1.0000 THE EMERGENCY 0.0000
-1.0000 THE HELL'D 0.0000
-1.0000 THE POD 0.0000
-1.0000 THE PROBLEM? 0.0000
-0.3010 THROUGH THE -0.2553
-0.6021 WHAT ARE 0.0000
-0.6021 WHAT YOU'RE 0.0000
-0.3010 WHAT'S THE -0.2553
-0.3010 WHERE THE -0.2553
-0.3010 WITH YOU -0.2430
-0.3010 WON'T ARGUE 0.0000
-0.9031 YOU ANYMORE. 0.0000
-0.9031 YOU GET 0.0000
-0.9031 YOU READ 0.0000
-0.9031 YOU TALKING 0.0000
-0.3010 YOU'RE TALKING 0.0000

\3-grams:
-0.3010 <s> ALRIGHT, HAL.
-0.3010 <s> HAL, I
-0.3010 <s> HELLO, HAL.
-0.3010 <s> I DON'T
-0.3010 <s> OPEN THE
-0.3010 <s> WHAT ARE
-0.3010 <s> WHAT'S THE
-0.3010 <s> WHERE THE
-0.3010 ABOUT, HAL. </s>
-0.3010 ABOUT, HAL? </s>
-0.3010 ALRIGHT, HAL. I'LL
-0.3010 ANYMORE. OPEN THE
-0.3010 ARE YOU TALKING
-0.3010 ARGUE WITH YOU
-0.3010 BAY DOORS, HAL.
-0.3010 DO YOU READ
-0.3010 DON'T KNOW WHAT
-0.3010 DOORS, HAL. </s>
-0.3010 EMERGENCY AIRLOCK. </s>
-0.3010 GET THAT IDEA,
-0.3010 GO IN THROUGH
-0.3010 HAL, I WON'T
-0.3010 HAL. DO YOU
-0.3010 HAL. I'LL GO
-0.3010 HELL'D YOU GET
-0.3010 HELLO, HAL. DO
-0.3010 I DON'T KNOW
-0.3010 I WON'T ARGUE
-0.3010 I'LL GO IN
-0.3010 IDEA, HAL? </s>
-0.3010 IN THROUGH THE
-0.3010 KNOW WHAT YOU'RE
-0.3010 ME, HAL? </s>
-0.6021 OPEN THE DOORS.
-0.6021 OPEN THE POD
-0.3010 POD BAY DOORS,
-0.3010 READ ME, HAL?
-0.6021 TALKING ABOUT, HAL.
-0.6021 TALKING ABOUT, HAL?
-0.3010 THAT IDEA, HAL?
-0.3010 THE DOORS. </s>
-0.3010 THE EMERGENCY AIRLOCK.
-0.3010 THE HELL'D YOU
-0.3010 THE POD BAY
-0.3010 THE PROBLEM? </s>
-0.3010 THROUGH THE EMERGENCY
-0.3010 WHAT ARE YOU
-0.3010 WHAT YOU'RE TALKING
-0.3010 WHAT'S THE PROBLEM?
-0.3010 WHERE THE HELL'D
-0.3010 WITH YOU ANYMORE.
-0.3010 WON'T ARGUE WITH
-0.3010 YOU ANYMORE. OPEN
-0.3010 YOU GET THAT
-0.3010 YOU READ ME,
-0.3010 YOU TALKING ABOUT,
-0.3010 YOU'RE TALKING ABOUT,

\end\
